<?xml version="1.0"?>
<opencv_storage>
<cascade>
  <stageType>BOOST</stageType>
  <featureType>HAAR</featureType>
  <height>32</height>
  <width>32</width>
  <stageParams>
    <boostType>GAB</boostType>
    <minHitRate>9.9500000476837158e-01</minHitRate>
    <maxFalseAlarm>5.0000000000000000e-01</maxFalseAlarm>
    <weightTrimRate>9.4999998807907104e-01</weightTrimRate>
    <maxDepth>1</maxDepth>
    <maxWeakCount>100</maxWeakCount></stageParams>
  <featureParams>
    <maxCatCount>0</maxCatCount>
    <featSize>1</featSize>
    <mode>BASIC</mode></featureParams>
  <stageNum>9</stageNum>
  <stages>
    <!-- stage 0 -->
    <_>
      <maxWeakCount>1</maxWeakCount>
      <stageThreshold>9.4594591856002808e-01</stageThreshold>
      <weakClassifiers>
        <_>
          <internalNodes>
            0 -1 8 -9.2070564627647400e-02</internalNodes>
          <leafValues>
            9.4594591856002808e-01 -1.</leafValues></_></weakClassifiers></_>
    <!-- stage 1 -->
    <_>
      <maxWeakCount>2</maxWeakCount>
      <stageThreshold>-8.0195762217044830e-02</stageThreshold>
      <weakClassifiers>
        <_>
          <internalNodes>
            0 -1 4 -2.0224317908287048e-02</internalNodes>
          <leafValues>
            8.4210526943206787e-01 -9.7959184646606445e-01</leafValues></_>
        <_>
          <internalNodes>
            0 -1 16 -1.3305322267115116e-02</internalNodes>
          <leafValues>
            9.1043943166732788e-01 -9.2230105400085449e-01</leafValues></_></weakClassifiers></_>
    <!-- stage 2 -->
    <_>
      <maxWeakCount>2</maxWeakCount>
      <stageThreshold>-1.3641506433486938e-01</stageThreshold>
      <weakClassifiers>
        <_>
          <internalNodes>
            0 -1 7 -5.5656753480434418e-02</internalNodes>
          <leafValues>
            8.2352942228317261e-01 -9.0196079015731812e-01</leafValues></_>
        <_>
          <internalNodes>
            0 -1 5 -4.6094592660665512e-02</internalNodes>
          <leafValues>
            7.7055394649505615e-01 -9.5994448661804199e-01</leafValues></_></weakClassifiers></_>
    <!-- stage 3 -->
    <_>
      <maxWeakCount>2</maxWeakCount>
      <stageThreshold>1.6856171190738678e-01</stageThreshold>
      <weakClassifiers>
        <_>
          <internalNodes>
            0 -1 15 3.2679608557373285e-03</internalNodes>
          <leafValues>
            -7.6991152763366699e-01 1.</leafValues></_>
        <_>
          <internalNodes>
            0 -1 13 -2.7615758590400219e-03</internalNodes>
          <leafValues>
            9.3847322463989258e-01 -7.2096991539001465e-01</leafValues></_></weakClassifiers></_>
    <!-- stage 4 -->
    <_>
      <maxWeakCount>2</maxWeakCount>
      <stageThreshold>-3.6829948425292969e-01</stageThreshold>
      <weakClassifiers>
        <_>
          <internalNodes>
            0 -1 10 -8.6855843663215637e-02</internalNodes>
          <leafValues>
            7.7142858505249023e-01 -9.0099012851715088e-01</leafValues></_>
        <_>
          <internalNodes>
            0 -1 17 -2.6887224521487951e-03</internalNodes>
          <leafValues>
            -1. 5.3269064426422119e-01</leafValues></_></weakClassifiers></_>
    <!-- stage 5 -->
    <_>
      <maxWeakCount>2</maxWeakCount>
      <stageThreshold>-1.9185206294059753e-01</stageThreshold>
      <weakClassifiers>
        <_>
          <internalNodes>
            0 -1 14 2.9792873188853264e-02</internalNodes>
          <leafValues>
            -8.9795917272567749e-01 6.3157892227172852e-01</leafValues></_>
        <_>
          <internalNodes>
            0 -1 0 5.6925959885120392e-02</internalNodes>
          <leafValues>
            -8.2343101501464844e-01 8.7269276380538940e-01</leafValues></_></weakClassifiers></_>
    <!-- stage 6 -->
    <_>
      <maxWeakCount>3</maxWeakCount>
      <stageThreshold>-7.6085919141769409e-01</stageThreshold>
      <weakClassifiers>
        <_>
          <internalNodes>
            0 -1 12 3.1780615448951721e-02</internalNodes>
          <leafValues>
            -8.3486241102218628e-01 1.</leafValues></_>
        <_>
          <internalNodes>
            0 -1 3 -3.4403074532747269e-02</internalNodes>
          <leafValues>
            7.6196551322937012e-01 -7.7830713987350464e-01</leafValues></_>
        <_>
          <internalNodes>
            0 -1 11 -9.3392618000507355e-03</internalNodes>
          <leafValues>
            9.7822904586791992e-01 -6.8796229362487793e-01</leafValues></_></weakClassifiers></_>
    <!-- stage 7 -->
    <_>
      <maxWeakCount>2</maxWeakCount>
      <stageThreshold>-3.2993525266647339e-01</stageThreshold>
      <weakClassifiers>
        <_>
          <internalNodes>
            0 -1 6 -5.8779053390026093e-02</internalNodes>
          <leafValues>
            7.1428573131561279e-01 -8.8118809461593628e-01</leafValues></_>
        <_>
          <internalNodes>
            0 -1 9 7.7363789081573486e-02</internalNodes>
          <leafValues>
            -9.1029489040374756e-01 5.5125284194946289e-01</leafValues></_></weakClassifiers></_>
    <!-- stage 8 -->
    <_>
      <maxWeakCount>2</maxWeakCount>
      <stageThreshold>-4.5746383070945740e-01</stageThreshold>
      <weakClassifiers>
        <_>
          <internalNodes>
            0 -1 2 1.8437419086694717e-02</internalNodes>
          <leafValues>
            -8.9999997615814209e-01 7.2222220897674561e-01</leafValues></_>
        <_>
          <internalNodes>
            0 -1 1 -5.4620876908302307e-03</internalNodes>
          <leafValues>
            4.4253614544868469e-01 -1.</leafValues></_></weakClassifiers></_></stages>
  <features>
    <_>
      <rects>
        <_>
          0 7 15 19 -1.</_>
        <_>
          5 7 5 19 3.</_></rects>
      <tilted>0</tilted></_>
    <_>
      <rects>
        <_>
          1 15 26 6 -1.</_>
        <_>
          1 15 13 3 2.</_>
        <_>
          14 18 13 3 2.</_></rects>
      <tilted>0</tilted></_>
    <_>
      <rects>
        <_>
          2 0 18 7 -1.</_>
        <_>
          8 0 6 7 3.</_></rects>
      <tilted>0</tilted></_>
    <_>
      <rects>
        <_>
          2 0 18 10 -1.</_>
        <_>
          2 0 9 5 2.</_>
        <_>
          11 5 9 5 2.</_></rects>
      <tilted>0</tilted></_>
    <_>
      <rects>
        <_>
          3 7 27 2 -1.</_>
        <_>
          12 7 9 2 3.</_></rects>
      <tilted>0</tilted></_>
    <_>
      <rects>
        <_>
          6 22 24 6 -1.</_>
        <_>
          14 22 8 6 3.</_></rects>
      <tilted>0</tilted></_>
    <_>
      <rects>
        <_>
          7 5 18 9 -1.</_>
        <_>
          7 8 18 3 3.</_></rects>
      <tilted>0</tilted></_>
    <_>
      <rects>
        <_>
          8 4 17 9 -1.</_>
        <_>
          8 7 17 3 3.</_></rects>
      <tilted>0</tilted></_>
    <_>
      <rects>
        <_>
          8 14 20 18 -1.</_>
        <_>
          8 20 20 6 3.</_></rects>
      <tilted>0</tilted></_>
    <_>
      <rects>
        <_>
          10 0 15 20 -1.</_>
        <_>
          10 10 15 10 2.</_></rects>
      <tilted>0</tilted></_>
    <_>
      <rects>
        <_>
          12 1 9 15 -1.</_>
        <_>
          12 6 9 5 3.</_></rects>
      <tilted>0</tilted></_>
    <_>
      <rects>
        <_>
          12 10 3 14 -1.</_>
        <_>
          13 10 1 14 3.</_></rects>
      <tilted>0</tilted></_>
    <_>
      <rects>
        <_>
          14 2 18 6 -1.</_>
        <_>
          14 2 9 3 2.</_>
        <_>
          23 5 9 3 2.</_></rects>
      <tilted>0</tilted></_>
    <_>
      <rects>
        <_>
          15 15 3 3 -1.</_>
        <_>
          16 15 1 3 3.</_></rects>
      <tilted>0</tilted></_>
    <_>
      <rects>
        <_>
          15 18 14 8 -1.</_>
        <_>
          15 18 7 4 2.</_>
        <_>
          22 22 7 4 2.</_></rects>
      <tilted>0</tilted></_>
    <_>
      <rects>
        <_>
          18 12 3 6 -1.</_>
        <_>
          19 12 1 6 3.</_></rects>
      <tilted>0</tilted></_>
    <_>
      <rects>
        <_>
          21 7 8 10 -1.</_>
        <_>
          21 7 4 5 2.</_>
        <_>
          25 12 4 5 2.</_></rects>
      <tilted>0</tilted></_>
    <_>
      <rects>
        <_>
          26 8 4 22 -1.</_>
        <_>
          26 19 4 11 2.</_></rects>
      <tilted>0</tilted></_></features></cascade>
</opencv_storage>
